//Numpy array shape [252, 15]
//Min -0.500000000000
//Max 0.500000000000
//Number of zeros 1765

#ifndef W2_H_
#define W2_H_

namespace CICADA_v1p1{
#ifdef LOAD_WEIGHTS_FROM_TXT
  weight2_t w2[3780];
#else
  weight2_t w2[3780] = {0.500000, -0.500000, -0.500000, 0.000000, 0.000000, -0.500000, -0.500000, 0.500000, 0.500000, -0.500000, 0.000000, 0.500000, -0.500000, 0.000000, 0.500000, 0.500000, -0.500000, 0.000000, -0.500000, 0.000000, 0.000000, -0.500000, 0.500000, -0.500000, -0.500000, 0.000000, 0.500000, 0.500000, 0.500000, 0.500000, 0.500000, -0.500000, -0.500000, -0.500000, 0.500000, 0.500000, 0.000000, 0.500000, 0.500000, -0.500000, 0.500000, -0.500000, 0.500000, 0.500000, 0.500000, 0.500000, 0.500000, -0.500000, -0.500000, 0.500000, 0.500000, -0.500000, 0.000000, 0.500000, -0.500000, -0.500000, 0.500000, -0.500000, 0.500000, 0.500000, 0.500000, 0.500000, -0.500000, -0.500000, 0.500000, 0.000000, 0.000000, 0.500000, 0.500000, 0.000000, 0.500000, -0.500000, 0.000000, 0.000000, 0.000000, 0.000000, 0.000000, 0.000000, -0.500000, 0.000000, 0.500000, 0.500000, 0.500000, 0.000000, -0.500000, 0.000000, 0.000000, 0.000000, 0.500000, 0.500000, 0.500000, 0.000000, 0.000000, 0.500000, 0.500000, 0.500000, -0.500000, 0.500000, 0.000000, -0.500000, -0.500000, -0.500000, 0.000000, 0.000000, 0.000000, 0.000000, 0.500000, -0.500000, 0.000000, 0.000000, 0.500000, 0.500000, 0.500000, 0.500000, -0.500000, -0.500000, 0.000000, -0.500000, 0.000000, 0.500000, -0.500000, 0.000000, 0.000000, 0.500000, 0.500000, 0.000000, 0.500000, 0.000000, 0.000000, 0.500000, 0.000000, 0.000000, 0.500000, 0.500000, 0.500000, 0.000000, 0.000000, 0.000000, 0.500000, 0.000000, -0.500000, -0.500000, 0.500000, 0.500000, -0.500000, -0.500000, -0.500000, 0.000000, -0.500000, 0.500000, 0.500000, 0.000000, 0.500000, 0.500000, 0.500000, 0.500000, 0.500000, 0.000000, -0.500000, 0.000000, 0.000000, -0.500000, -0.500000, 0.500000, 0.500000, -0.500000, 0.000000, 0.000000, -0.500000, 0.500000, -0.500000, 0.000000, 0.500000, 0.500000, -0.500000, 0.000000, 0.000000, -0.500000, 0.000000, 0.500000, 0.500000, 0.500000, 0.500000, 0.500000, 0.500000, 0.500000, 0.000000, 0.500000, -0.500000, -0.500000, -0.500000, -0.500000, -0.500000, 0.500000, -0.500000, 0.000000, -0.500000, -0.500000, 0.500000, 0.500000, -0.500000, -0.500000, 0.000000, 0.000000, -0.500000, 0.500000, 0.500000, 0.000000, -0.500000, 0.500000, 0.500000, -0.500000, 0.500000, -0.500000, 0.500000, -0.500000, -0.500000, 0.500000, -0.500000, -0.500000, 0.000000, 0.500000, 0.000000, -0.500000, 0.000000, 0.000000, 0.500000, 0.000000, -0.500000, 0.500000, 0.500000, 0.500000, 0.000000, -0.500000, 0.000000, -0.500000, -0.500000, 0.000000, 0.500000, 0.500000, 0.500000, 0.000000, -0.500000, 0.500000, 0.500000, -0.500000, 0.000000, 0.500000, 0.500000, 0.500000, 0.500000, 0.500000, 0.500000, 0.000000, 0.500000, 0.000000, 0.500000, -0.500000, -0.500000, 0.500000, -0.500000, 0.000000, 0.500000, 0.500000, -0.500000, 0.000000, 0.000000, 0.500000, 0.500000, 0.500000, 0.500000, -0.500000, 0.000000, -0.500000, 0.500000, 0.500000, 0.000000, 0.500000, 0.000000, 0.000000, 0.000000, 0.000000, 0.000000, 0.000000, 0.500000, 0.000000, 0.000000, 0.000000, -0.500000, 0.000000, 0.000000, 0.500000, 0.500000, 0.500000, 0.000000, -0.500000, -0.500000, 0.000000, 0.000000, 0.500000, 0.500000, 0.000000, 0.000000, 0.000000, 0.500000, 0.500000, 0.000000, 0.000000, 0.000000, 0.000000, -0.500000, -0.500000, -0.500000, 0.500000, 0.500000, 0.500000, 0.000000, 0.000000, 0.500000, 0.500000, 0.000000, -0.500000, 0.000000, 0.500000, -0.500000, -0.500000, -0.500000, -0.500000, 0.000000, 0.500000, 0.000000, 0.000000, -0.500000, 0.500000, 0.500000, 0.000000, 0.000000, 0.500000, 0.000000, 0.000000, -0.500000, -0.500000, -0.500000, 0.500000, 0.000000, 0.500000, 0.000000, 0.000000, 0.500000, 0.000000, 0.000000, 0.000000, 0.500000, 0.000000, 0.500000, 0.500000, 0.000000, -0.500000, 0.500000, 0.500000, 0.000000, 0.500000, 0.000000, 0.000000, 0.500000, -0.500000, 0.000000, 0.500000, 0.500000, -0.500000, 0.000000, 0.000000, 0.000000, 0.500000, 0.000000, 0.500000, -0.500000, 0.500000, 0.500000, 0.500000, 0.500000, 0.000000, 0.500000, 0.500000, 0.000000, -0.500000, -0.500000, 0.500000, 0.500000, 0.500000, -0.500000, -0.500000, 0.500000, 0.500000, 0.000000, 0.500000, 0.500000, 0.000000, -0.500000, -0.500000, -0.500000, 0.500000, 0.000000, -0.500000, 0.500000, 0.000000, -0.500000, 0.500000, 0.500000, 0.000000, -0.500000, -0.500000, 0.500000, -0.500000, -0.500000, 0.000000, 0.500000, -0.500000, -0.500000, 0.500000, -0.500000, 0.000000, -0.500000, 0.000000, 0.000000, 0.500000, -0.500000, 0.000000, 0.000000, -0.500000, 0.000000, 0.500000, 0.000000, 0.000000, 0.500000, 0.000000, -0.500000, 0.000000, 0.000000, 0.000000, -0.500000, 0.500000, 0.500000, 0.500000, -0.500000, -0.500000, -0.500000, 0.500000, 0.000000, 0.000000, 0.500000, -0.500000, 0.000000, 0.500000, 0.500000, 0.000000, 0.500000, 0.500000, 0.500000, 0.500000, 0.000000, 0.000000, 0.500000, 0.500000, 0.500000, 0.000000, 0.500000, 0.000000, 0.000000, 0.500000, -0.500000, 0.000000, 0.500000, 0.500000, -0.500000, -0.500000, 0.000000, 0.500000, 0.500000, 0.500000, 0.500000, 0.500000, -0.500000, -0.500000, 0.500000, 0.000000, 0.000000, 0.500000, 0.500000, 0.000000, 0.500000, -0.500000, 0.500000, 0.000000, 0.000000, -0.500000, 0.000000, 0.500000, -0.500000, 0.000000, 0.500000, 0.500000, 0.500000, 0.000000, 0.000000, 0.000000, 0.000000, 0.500000, 0.500000, 0.000000, 0.000000, 0.000000, -0.500000, 0.500000, 0.500000, 0.500000, -0.500000, 0.500000, 0.500000, -0.500000, -0.500000, -0.500000, -0.500000, -0.500000, 0.000000, 0.000000, 0.500000, 0.500000, 0.500000, 0.000000, 0.500000, 0.000000, 0.000000, 0.000000, -0.500000, -0.500000, -0.500000, -0.500000, 0.000000, 0.500000, -0.500000, 0.500000, 0.000000, 0.500000, 0.000000, -0.500000, 0.000000, 0.500000, 0.000000, 0.000000, 0.000000, 0.000000, 0.000000, 0.000000, 0.500000, 0.500000, 0.000000, 0.000000, 0.500000, 0.000000, -0.500000, -0.500000, 0.500000, 0.500000, -0.500000, 0.000000, 0.000000, 0.000000, 0.000000, 0.500000, 0.000000, 0.000000, -0.500000, 0.000000, 0.500000, 0.000000, 0.000000, 0.000000, 0.500000, -0.500000, -0.500000, 0.000000, 0.000000, 0.500000, 0.500000, 0.500000, -0.500000, -0.500000, 0.500000, 0.500000, -0.500000, 0.000000, 0.500000, 0.500000, 0.000000, 0.000000, 0.500000, 0.500000, -0.500000, 0.500000, 0.500000, 0.500000, -0.500000, 0.500000, 0.500000, 0.000000, -0.500000, -0.500000, -0.500000, -0.500000, -0.500000, 0.500000, -0.500000, -0.500000, 0.500000, -0.500000, 0.500000, 0.500000, 0.000000, 0.000000, 0.500000, -0.500000, 0.500000, 0.000000, -0.500000, 0.000000, 0.500000, 0.000000, 0.000000, 0.500000, 0.500000, -0.500000, -0.500000, 0.000000, 0.500000, 0.000000, 0.500000, 0.000000, 0.000000, -0.500000, 0.000000, 0.000000, -0.500000, 0.500000, 0.500000, -0.500000, 0.000000, 0.000000, -0.500000, 0.000000, 0.500000, -0.500000, 0.000000, 0.000000, -0.500000, -0.500000, 0.500000, 0.000000, 0.000000, 0.500000, 0.500000, 0.000000, -0.500000, 0.000000, 0.500000, -0.500000, 0.500000, 0.500000, 0.500000, 0.500000, -0.500000, -0.500000, 0.500000, 0.000000, 0.500000, 0.500000, 0.500000, -0.500000, -0.500000, 0.500000, 0.500000, -0.500000, 0.500000, 0.000000, -0.500000, 0.000000, 0.500000, 0.000000, 0.500000, 0.500000, 0.500000, -0.500000, -0.500000, 0.000000, 0.500000, 0.500000, 0.500000, 0.500000, 0.500000, 0.500000, 0.500000, -0.500000, 0.000000, -0.500000, 0.000000, 0.500000, -0.500000, 0.500000, -0.500000, 0.000000, 0.000000, 0.000000, 0.500000, 0.500000, 0.000000, 0.000000, 0.000000, 0.000000, -0.500000, 0.500000, 0.500000, -0.500000, 0.000000, 0.500000, 0.500000, 0.500000, -0.500000, 0.500000, 0.000000, -0.500000, -0.500000, -0.500000, -0.500000, 0.000000, 0.000000, 0.500000, 0.500000, 0.000000, 0.000000, 0.500000, 0.000000, -0.500000, 0.500000, 0.000000, -0.500000, -0.500000, 0.000000, -0.500000, 0.500000, 0.000000, 0.500000, 0.000000, -0.500000, 0.500000, 0.500000, -0.500000, 0.000000, 0.000000, 0.500000, -0.500000, -0.500000, 0.000000, 0.000000, 0.500000, 0.000000, -0.500000, 0.500000, -0.500000, 0.500000, 0.500000, -0.500000, 0.000000, 0.500000, 0.500000, -0.500000, 0.000000, 0.000000, 0.500000, 0.000000, 0.000000, 0.500000, 0.000000, 0.000000, 0.500000, 0.500000, -0.500000, 0.500000, 0.000000, 0.000000, -0.500000, -0.500000, 0.000000, 0.500000, 0.500000, 0.500000, 0.000000, 0.000000, -0.500000, 0.500000, 0.500000, 0.000000, 0.000000, 0.500000, 0.000000, 0.500000, 0.500000, 0.000000, 0.500000, 0.000000, 0.500000, -0.500000, 0.500000, 0.000000, 0.500000, 0.500000, -0.500000, 0.000000, 0.000000, -0.500000, -0.500000, -0.500000, 0.500000, 0.000000, 0.000000, 0.500000, 0.000000, -0.500000, 0.500000, 0.500000, 0.000000, 0.000000, -0.500000, 0.500000, -0.500000, -0.500000, 0.000000, -0.500000, 0.000000, 0.000000, 0.500000, 0.500000, -0.500000, -0.500000, 0.500000, 0.000000, 0.500000, 0.000000, 0.500000, -0.500000, -0.500000, 0.000000, 0.000000, 0.000000, -0.500000, 0.500000, 0.500000, -0.500000, -0.500000, -0.500000, -0.500000, -0.500000, -0.500000, 0.500000, 0.500000, -0.500000, -0.500000, 0.500000, 0.500000, 0.500000, 0.000000, 0.500000, 0.000000, 0.000000, -0.500000, 0.500000, 0.000000, 0.000000, 0.500000, 0.500000, 0.000000, 0.000000, 0.000000, 0.000000, 0.000000, 0.500000, 0.000000, 0.000000, -0.500000, 0.000000, 0.000000, 0.000000, 0.000000, 0.500000, 0.000000, 0.000000, 0.000000, 0.000000, -0.500000, 0.000000, 0.500000, 0.000000, 0.000000, -0.500000, -0.500000, 0.500000, 0.500000, 0.500000, 0.000000, 0.500000, 0.000000, -0.500000, 0.000000, 0.500000, 0.500000, 0.500000, 0.500000, -0.500000, 0.000000, -0.500000, 0.500000, 0.000000, 0.500000, 0.500000, 0.500000, -0.500000, -0.500000, -0.500000, 0.000000, 0.000000, 0.500000, 0.000000, 0.500000, -0.500000, 0.500000, 0.500000, 0.500000, -0.500000, 0.000000, 0.000000, -0.500000, -0.500000, -0.500000, -0.500000, -0.500000, 0.500000, 0.500000, -0.500000, 0.500000, 0.000000, 0.500000, 0.500000, 0.000000, 0.000000, 0.500000, -0.500000, -0.500000, 0.000000, -0.500000, -0.500000, 0.000000, -0.500000, 0.500000, -0.500000, 0.500000, 0.500000, 0.000000, 0.000000, 0.000000, 0.500000, -0.500000, -0.500000, 0.000000, 0.500000, 0.000000, 0.500000, 0.500000, 0.500000, 0.500000, 0.500000, 0.500000, -0.500000, 0.000000, 0.000000, 0.500000, -0.500000, -0.500000, -0.500000, 0.000000, 0.500000, 0.500000, 0.500000, 0.000000, -0.500000, 0.000000, 0.000000, -0.500000, 0.500000, 0.500000, 0.500000, 0.000000, 0.500000, 0.500000, 0.000000, 0.500000, 0.500000, 0.000000, 0.500000, 0.000000, 0.500000, 0.500000, -0.500000, 0.500000, 0.000000, 0.500000, -0.500000, -0.500000, 0.500000, 0.000000, 0.000000, 0.500000, -0.500000, 0.000000, 0.000000, 0.500000, 0.500000, 0.000000, -0.500000, 0.000000, 0.000000, -0.500000, 0.000000, 0.500000, 0.000000, -0.500000, 0.000000, 0.500000, -0.500000, 0.000000, 0.000000, 0.000000, 0.500000, -0.500000, 0.500000, 0.000000, -0.500000, 0.000000, 0.000000, 0.000000, 0.500000, 0.000000, 0.500000, 0.000000, 0.500000, -0.500000, 0.500000, -0.500000, 0.500000, 0.500000, -0.500000, 0.000000, 0.500000, 0.000000, -0.500000, 0.000000, 0.500000, 0.500000, -0.500000, -0.500000, -0.500000, -0.500000, 0.500000, -0.500000, 0.500000, 0.500000, -0.500000, -0.500000, 0.500000, -0.500000, 0.500000, 0.500000, 0.500000, 0.500000, 0.500000, -0.500000, 0.500000, -0.500000, 0.000000, 0.500000, 0.500000, 0.000000, 0.000000, -0.500000, 0.000000, -0.500000, 0.500000, 0.500000, -0.500000, -0.500000, -0.500000, 0.500000, -0.500000, 0.500000, 0.500000, 0.500000, 0.500000, 0.000000, 0.000000, 0.000000, 0.500000, 0.500000, 0.500000, 0.000000, 0.500000, -0.500000, 0.500000, 0.500000, -0.500000, 0.500000, 0.500000, -0.500000, -0.500000, -0.500000, -0.500000, 0.000000, 0.500000, 0.000000, 0.000000, -0.500000, -0.500000, 0.000000, 0.000000, 0.500000, 0.500000, 0.500000, 0.000000, 0.000000, 0.500000, 0.500000, -0.500000, 0.500000, 0.500000, -0.500000, 0.000000, 0.000000, 0.500000, 0.500000, -0.500000, 0.500000, 0.500000, -0.500000, -0.500000, -0.500000, 0.000000, 0.000000, 0.000000, 0.500000, 0.000000, 0.500000, 0.500000, 0.500000, 0.500000, -0.500000, 0.500000, 0.000000, -0.500000, -0.500000, -0.500000, 0.000000, 0.000000, 0.000000, 0.500000, 0.500000, 0.000000, 0.500000, 0.500000, -0.500000, 0.000000, 0.500000, -0.500000, 0.500000, 0.000000, 0.000000, 0.000000, 0.500000, 0.500000, -0.500000, -0.500000, 0.500000, 0.500000, 0.500000, 0.000000, 0.000000, 0.500000, 0.500000, 0.000000, -0.500000, 0.000000, -0.500000, 0.000000, 0.000000, 0.500000, 0.000000, -0.500000, 0.000000, 0.500000, 0.000000, 0.500000, 0.500000, 0.000000, 0.000000, 0.000000, 0.000000, 0.000000, 0.500000, 0.000000, -0.500000, 0.000000, 0.000000, 0.500000, 0.500000, 0.000000, -0.500000, 0.500000, 0.500000, 0.500000, 0.500000, 0.000000, 0.500000, 0.500000, 0.500000, 0.500000, 0.500000, 0.000000, 0.500000, 0.500000, 0.500000, -0.500000, 0.000000, -0.500000, -0.500000, -0.500000, 0.500000, -0.500000, -0.500000, 0.500000, -0.500000, -0.500000, 0.500000, 0.500000, 0.500000, 0.500000, 0.500000, 0.000000, -0.500000, 0.000000, 0.000000, 0.500000, 0.000000, 0.000000, 0.500000, -0.500000, 0.500000, 0.500000, -0.500000, 0.500000, -0.500000, -0.500000, 0.500000, 0.500000, -0.500000, -0.500000, -0.500000, 0.000000, 0.500000, 0.500000, 0.500000, -0.500000, 0.500000, -0.500000, -0.500000, -0.500000, 0.500000, 0.000000, 0.500000, -0.500000, -0.500000, 0.500000, -0.500000, 0.500000, 0.500000, 0.500000, 0.000000, 0.000000, -0.500000, 0.500000, 0.500000, 0.500000, 0.500000, 0.500000, 0.500000, 0.000000, 0.000000, 0.500000, -0.500000, 0.500000, -0.500000, 0.500000, -0.500000, 0.000000, 0.500000, 0.500000, 0.500000, 0.500000, 0.500000, -0.500000, -0.500000, 0.500000, -0.500000, 0.500000, 0.500000, 0.000000, -0.500000, -0.500000, 0.500000, 0.500000, 0.000000, 0.500000, 0.000000, 0.500000, 0.000000, -0.500000, -0.500000, 0.500000, 0.000000, 0.500000, -0.500000, -0.500000, 0.500000, -0.500000, 0.500000, 0.500000, 0.500000, 0.500000, 0.000000, 0.000000, -0.500000, -0.500000, 0.500000, -0.500000, 0.500000, 0.000000, 0.500000, 0.000000, 0.500000, 0.500000, 0.500000, 0.500000, 0.500000, 0.000000, -0.500000, -0.500000, 0.000000, 0.000000, -0.500000, 0.000000, -0.500000, 0.000000, 0.500000, 0.500000, 0.500000, 0.000000, 0.000000, 0.000000, 0.500000, 0.000000, -0.500000, -0.500000, -0.500000, 0.000000, 0.500000, 0.000000, 0.000000, 0.000000, 0.500000, 0.500000, -0.500000, 0.500000, 0.500000, 0.000000, 0.000000, -0.500000, 0.000000, 0.500000, -0.500000, 0.000000, 0.000000, 0.000000, -0.500000, 0.500000, 0.500000, -0.500000, -0.500000, 0.000000, 0.500000, -0.500000, -0.500000, 0.500000, -0.500000, 0.000000, 0.500000, 0.000000, -0.500000, 0.500000, 0.000000, 0.500000, 0.500000, 0.500000, 0.500000, 0.000000, 0.000000, 0.000000, 0.000000, -0.500000, 0.000000, 0.500000, 0.000000, 0.500000, 0.000000, 0.500000, 0.500000, -0.500000, 0.500000, 0.500000, 0.500000, 0.000000, 0.500000, 0.000000, 0.000000, -0.500000, 0.500000, 0.500000, 0.500000, 0.000000, 0.500000, 0.000000, 0.500000, 0.500000, 0.500000, -0.500000, 0.000000, 0.000000, 0.500000, 0.500000, 0.500000, 0.000000, 0.500000, 0.000000, 0.000000, -0.500000, 0.500000, 0.500000, -0.500000, 0.500000, -0.500000, -0.500000, 0.000000, 0.500000, -0.500000, -0.500000, 0.500000, -0.500000, 0.000000, 0.500000, -0.500000, 0.000000, -0.500000, 0.000000, 0.500000, 0.500000, 0.000000, 0.500000, 0.500000, 0.000000, -0.500000, 0.500000, 0.500000, -0.500000, 0.000000, 0.500000, 0.500000, -0.500000, 0.500000, -0.500000, 0.000000, -0.500000, -0.500000, -0.500000, -0.500000, 0.500000, 0.500000, -0.500000, -0.500000, 0.500000, 0.500000, 0.500000, -0.500000, 0.000000, 0.500000, 0.500000, -0.500000, 0.000000, -0.500000, 0.500000, -0.500000, 0.500000, 0.000000, 0.000000, 0.000000, 0.000000, 0.500000, -0.500000, 0.000000, 0.000000, 0.500000, -0.500000, -0.500000, 0.000000, 0.000000, 0.000000, 0.500000, -0.500000, -0.500000, -0.500000, 0.500000, 0.500000, 0.500000, 0.000000, 0.500000, 0.000000, -0.500000, -0.500000, 0.500000, -0.500000, 0.000000, 0.000000, 0.000000, -0.500000, 0.500000, 0.500000, 0.000000, 0.000000, 0.500000, 0.500000, 0.500000, -0.500000, -0.500000, 0.000000, -0.500000, 0.000000, 0.500000, 0.500000, -0.500000, 0.000000, 0.500000, 0.500000, 0.000000, 0.500000, 0.000000, 0.000000, -0.500000, -0.500000, 0.500000, 0.500000, -0.500000, 0.500000, 0.000000, 0.500000, 0.000000, 0.500000, 0.000000, -0.500000, 0.000000, 0.500000, 0.500000, -0.500000, -0.500000, -0.500000, -0.500000, -0.500000, 0.500000, 0.500000, 0.000000, 0.500000, 0.500000, 0.500000, -0.500000, 0.500000, 0.500000, 0.000000, -0.500000, -0.500000, 0.000000, -0.500000, -0.500000, 0.000000, 0.500000, 0.500000, 0.000000, 0.500000, 0.000000, 0.000000, -0.500000, 0.500000, 0.000000, -0.500000, 0.000000, 0.500000, 0.000000, -0.500000, 0.500000, 0.500000, -0.500000, -0.500000, 0.000000, 0.500000, 0.500000, 0.000000, 0.500000, 0.000000, 0.000000, -0.500000, 0.000000, 0.000000, 0.000000, 0.500000, 0.000000, -0.500000, 0.000000, 0.500000, 0.500000, 0.000000, 0.500000, 0.500000, 0.500000, 0.000000, 0.500000, 0.500000, -0.500000, 0.500000, 0.500000, 0.000000, 0.500000, -0.500000, 0.000000, 0.500000, 0.500000, 0.500000, 0.000000, -0.500000, -0.500000, -0.500000, 0.500000, 0.500000, 0.500000, 0.000000, 0.000000, -0.500000, 0.500000, -0.500000, 0.500000, -0.500000, 0.000000, 0.500000, -0.500000, 0.000000, 0.500000, 0.500000, -0.500000, 0.000000, 0.000000, -0.500000, 0.000000, -0.500000, -0.500000, 0.500000, -0.500000, -0.500000, 0.500000, -0.500000, -0.500000, -0.500000, 0.500000, 0.000000, 0.000000, 0.500000, -0.500000, 0.500000, 0.000000, 0.500000, 0.000000, -0.500000, -0.500000, 0.500000, 0.000000, 0.000000, 0.500000, 0.000000, 0.500000, 0.500000, 0.500000, 0.000000, 0.000000, 0.000000, 0.000000, 0.500000, 0.000000, 0.500000, 0.500000, 0.500000, 0.000000, 0.000000, 0.000000, 0.000000, 0.000000, 0.500000, 0.000000, -0.500000, 0.500000, -0.500000, 0.500000, 0.500000, 0.500000, 0.000000, 0.500000, 0.000000, 0.000000, -0.500000, 0.500000, 0.000000, 0.500000, -0.500000, 0.500000, 0.500000, 0.000000, 0.500000, -0.500000, 0.500000, 0.500000, 0.000000, -0.500000, -0.500000, 0.000000, 0.500000, 0.500000, 0.000000, -0.500000, 0.000000, 0.500000, 0.000000, 0.500000, 0.500000, 0.500000, 0.500000, 0.500000, -0.500000, -0.500000, -0.500000, 0.000000, 0.000000, 0.500000, 0.500000, 0.500000, 0.500000, 0.500000, 0.000000, 0.500000, -0.500000, 0.500000, 0.000000, -0.500000, 0.000000, 0.000000, 0.000000, 0.000000, 0.000000, 0.000000, 0.500000, -0.500000, 0.500000, 0.500000, -0.500000, -0.500000, 0.500000, 0.500000, 0.000000, -0.500000, -0.500000, -0.500000, -0.500000, 0.000000, 0.500000, 0.000000, -0.500000, 0.000000, 0.500000, 0.000000, 0.500000, 0.000000, 0.000000, 0.500000, 0.500000, 0.500000, 0.500000, -0.500000, 0.000000, -0.500000, 0.000000, 0.000000, 0.500000, 0.500000, -0.500000, 0.000000, 0.500000, 0.500000, 0.000000, 0.000000, 0.000000, 0.000000, -0.500000, 0.000000, 0.000000, 0.000000, 0.000000, 0.000000, 0.000000, 0.500000, 0.500000, 0.500000, 0.500000, 0.500000, 0.000000, 0.000000, 0.500000, 0.000000, 0.500000, 0.000000, -0.500000, 0.000000, 0.500000, 0.500000, 0.500000, 0.000000, 0.500000, 0.500000, 0.000000, 0.500000, 0.000000, 0.000000, -0.500000, 0.500000, 0.500000, 0.500000, -0.500000, -0.500000, 0.500000, -0.500000, 0.000000, 0.000000, 0.000000, -0.500000, 0.000000, -0.500000, 0.000000, 0.000000, 0.500000, 0.000000, -0.500000, 0.000000, 0.000000, 0.500000, 0.500000, 0.000000, 0.000000, -0.500000, 0.000000, 0.000000, 0.500000, 0.000000, 0.000000, 0.500000, -0.500000, -0.500000, 0.500000, 0.000000, 0.500000, 0.000000, -0.500000, 0.000000, 0.000000, 0.000000, 0.500000, -0.500000, 0.000000, 0.000000, 0.500000, 0.000000, -0.500000, -0.500000, -0.500000, 0.500000, 0.500000, 0.500000, 0.500000, 0.000000, -0.500000, -0.500000, 0.000000, 0.500000, 0.500000, 0.000000, 0.000000, 0.500000, 0.500000, 0.500000, 0.500000, -0.500000, -0.500000, 0.500000, 0.500000, -0.500000, 0.000000, 0.000000, 0.000000, -0.500000, 0.500000, 0.000000, -0.500000, -0.500000, 0.000000, 0.500000, 0.500000, -0.500000, 0.500000, 0.500000, 0.000000, 0.000000, 0.500000, 0.000000, 0.000000, 0.500000, 0.000000, -0.500000, 0.500000, 0.500000, 0.500000, 0.500000, 0.000000, 0.500000, 0.500000, -0.500000, -0.500000, -0.500000, 0.000000, 0.000000, 0.000000, -0.500000, 0.000000, 0.000000, 0.000000, 0.500000, -0.500000, 0.500000, 0.000000, 0.500000, 0.500000, -0.500000, 0.500000, -0.500000, 0.500000, 0.500000, 0.500000, 0.500000, 0.500000, 0.500000, 0.500000, -0.500000, 0.500000, 0.000000, -0.500000, 0.500000, -0.500000, 0.000000, 0.000000, 0.000000, 0.500000, 0.500000, 0.000000, 0.000000, 0.500000, 0.500000, -0.500000, -0.500000, 0.000000, 0.000000, 0.000000, -0.500000, 0.500000, -0.500000, 0.000000, 0.500000, 0.000000, 0.500000, 0.500000, 0.500000, 0.500000, 0.500000, -0.500000, 0.000000, -0.500000, -0.500000, -0.500000, -0.500000, 0.000000, 0.000000, 0.500000, 0.500000, 0.000000, -0.500000, 0.500000, 0.500000, -0.500000, 0.000000, 0.500000, 0.000000, 0.000000, -0.500000, -0.500000, 0.000000, 0.000000, 0.500000, 0.000000, 0.000000, -0.500000, 0.000000, 0.500000, 0.500000, 0.500000, 0.500000, 0.000000, 0.000000, 0.000000, -0.500000, 0.000000, -0.500000, 0.000000, -0.500000, -0.500000, -0.500000, 0.500000, 0.500000, 0.500000, 0.000000, 0.500000, 0.500000, -0.500000, -0.500000, 0.000000, -0.500000, -0.500000, 0.500000, 0.500000, -0.500000, -0.500000, -0.500000, -0.500000, 0.500000, 0.000000, 0.500000, -0.500000, 0.500000, 0.000000, 0.500000, -0.500000, 0.000000, 0.500000, 0.000000, 0.500000, 0.000000, 0.000000, 0.500000, 0.000000, 0.000000, 0.500000, -0.500000, 0.000000, 0.500000, -0.500000, -0.500000, 0.000000, 0.500000, 0.500000, -0.500000, 0.500000, -0.500000, 0.500000, -0.500000, 0.000000, 0.000000, 0.000000, 0.000000, 0.000000, -0.500000, 0.000000, 0.500000, 0.500000, -0.500000, 0.500000, 0.000000, 0.500000, 0.500000, -0.500000, -0.500000, 0.000000, 0.000000, -0.500000, -0.500000, 0.000000, -0.500000, 0.500000, 0.500000, 0.000000, 0.500000, 0.500000, 0.000000, 0.500000, 0.500000, -0.500000, 0.500000, 0.500000, -0.500000, -0.500000, 0.500000, -0.500000, 0.500000, 0.500000, 0.000000, 0.500000, 0.500000, 0.000000, 0.500000, -0.500000, 0.500000, 0.500000, 0.000000, 0.000000, 0.000000, -0.500000, -0.500000, 0.000000, 0.500000, 0.500000, 0.500000, 0.000000, 0.000000, 0.500000, 0.500000, 0.500000, 0.500000, -0.500000, 0.000000, 0.000000, 0.500000, 0.000000, -0.500000, 0.500000, -0.500000, 0.000000, 0.500000, 0.000000, 0.500000, 0.000000, 0.500000, 0.500000, 0.500000, 0.500000, -0.500000, 0.000000, 0.000000, 0.000000, 0.000000, -0.500000, 0.500000, 0.500000, 0.500000, 0.000000, 0.000000, -0.500000, 0.500000, 0.500000, -0.500000, -0.500000, -0.500000, 0.000000, -0.500000, 0.500000, 0.000000, 0.500000, 0.500000, 0.000000, 0.500000, -0.500000, 0.500000, 0.000000, 0.000000, 0.000000, -0.500000, -0.500000, 0.000000, -0.500000, 0.500000, 0.500000, 0.000000, -0.500000, 0.500000, 0.500000, -0.500000, 0.000000, 0.500000, 0.000000, 0.000000, -0.500000, 0.500000, -0.500000, -0.500000, 0.000000, -0.500000, 0.500000, 0.000000, 0.500000, 0.500000, -0.500000, 0.000000, 0.000000, 0.000000, -0.500000, -0.500000, 0.500000, 0.500000, 0.000000, 0.500000, 0.000000, -0.500000, 0.500000, 0.500000, 0.500000, 0.500000, 0.500000, 0.000000, 0.000000, 0.500000, -0.500000, -0.500000, -0.500000, -0.500000, 0.500000, 0.000000, 0.500000, -0.500000, 0.500000, 0.500000, 0.500000, 0.000000, 0.500000, 0.000000, 0.000000, 0.000000, 0.500000, -0.500000, -0.500000, 0.500000, 0.000000, -0.500000, 0.500000, -0.500000, 0.500000, 0.500000, 0.500000, 0.000000, -0.500000, 0.000000, 0.000000, 0.000000, 0.000000, 0.000000, 0.500000, 0.000000, 0.000000, 0.000000, 0.500000, 0.000000, -0.500000, 0.000000, 0.000000, -0.500000, -0.500000, 0.000000, 0.500000, -0.500000, 0.000000, 0.500000, -0.500000, -0.500000, -0.500000, 0.500000, 0.500000, 0.500000, 0.500000, 0.000000, 0.000000, -0.500000, 0.000000, 0.500000, -0.500000, 0.000000, 0.000000, -0.500000, -0.500000, 0.500000, 0.500000, 0.500000, 0.500000, 0.500000, 0.500000, 0.000000, 0.000000, -0.500000, 0.500000, 0.000000, 0.500000, 0.000000, -0.500000, 0.000000, 0.500000, 0.500000, 0.500000, 0.000000, 0.500000, 0.500000, 0.500000, 0.500000, 0.500000, 0.000000, 0.500000, 0.500000, 0.500000, 0.000000, 0.000000, 0.000000, 0.000000, 0.500000, 0.000000, -0.500000, 0.500000, 0.500000, -0.500000, -0.500000, 0.000000, -0.500000, 0.500000, 0.500000, -0.500000, 0.500000, 0.000000, 0.000000, 0.500000, 0.500000, 0.500000, 0.500000, 0.000000, 0.000000, 0.000000, 0.000000, 0.500000, 0.000000, 0.500000, -0.500000, 0.000000, -0.500000, 0.500000, 0.500000, 0.500000, -0.500000, 0.500000, 0.500000, -0.500000, -0.500000, -0.500000, -0.500000, 0.500000, 0.000000, 0.500000, 0.500000, -0.500000, 0.500000, 0.500000, 0.000000, 0.500000, 0.500000, -0.500000, 0.000000, 0.000000, 0.500000, 0.500000, -0.500000, 0.500000, -0.500000, 0.500000, 0.000000, 0.500000, 0.500000, -0.500000, -0.500000, 0.000000, 0.500000, -0.500000, -0.500000, 0.000000, -0.500000, 0.000000, 0.500000, 0.500000, 0.500000, 0.000000, 0.500000, 0.500000, 0.500000, 0.000000, 0.000000, 0.000000, -0.500000, -0.500000, -0.500000, -0.500000, -0.500000, 0.500000, 0.500000, 0.000000, -0.500000, 0.000000, 0.500000, -0.500000, 0.500000, 0.500000, 0.500000, 0.000000, -0.500000, 0.500000, 0.500000, -0.500000, 0.500000, -0.500000, 0.000000, -0.500000, -0.500000, 0.500000, 0.500000, 0.500000, 0.500000, 0.500000, 0.000000, 0.000000, -0.500000, 0.000000, 0.000000, 0.500000, -0.500000, 0.500000, 0.500000, 0.000000, 0.500000, 0.500000, 0.500000, 0.500000, 0.500000, 0.500000, 0.500000, 0.000000, 0.500000, -0.500000, 0.500000, -0.500000, 0.000000, 0.500000, 0.500000, 0.500000, 0.500000, 0.500000, 0.000000, -0.500000, 0.000000, 0.000000, 0.000000, 0.500000, 0.500000, 0.000000, -0.500000, 0.500000, 0.500000, -0.500000, 0.500000, 0.500000, 0.000000, 0.000000, 0.500000, -0.500000, -0.500000, -0.500000, -0.500000, -0.500000, 0.500000, 0.500000, -0.500000, -0.500000, 0.500000, 0.000000, -0.500000, 0.500000, 0.500000, 0.000000, -0.500000, 0.000000, -0.500000, -0.500000, 0.500000, 0.500000, -0.500000, 0.500000, 0.500000, -0.500000, 0.500000, 0.500000, -0.500000, 0.500000, 0.000000, -0.500000, -0.500000, 0.000000, -0.500000, 0.500000, 0.500000, -0.500000, 0.000000, 0.500000, 0.500000, 0.500000, 0.000000, 0.000000, 0.500000, 0.500000, 0.000000, 0.000000, 0.500000, 0.000000, 0.000000, 0.500000, 0.000000, 0.000000, -0.500000, 0.000000, 0.500000, 0.500000, -0.500000, 0.500000, 0.500000, 0.000000, -0.500000, 0.000000, 0.000000, 0.500000, 0.500000, -0.500000, 0.000000, 0.500000, -0.500000, 0.500000, 0.000000, 0.500000, 0.500000, 0.500000, -0.500000, -0.500000, 0.500000, 0.000000, 0.500000, 0.500000, 0.000000, 0.500000, 0.000000, 0.500000, 0.500000, 0.500000, -0.500000, 0.000000, 0.000000, -0.500000, -0.500000, 0.500000, -0.500000, 0.500000, 0.500000, -0.500000, 0.500000, -0.500000, -0.500000, 0.500000, 0.000000, -0.500000, 0.000000, 0.500000, -0.500000, -0.500000, 0.500000, -0.500000, 0.000000, 0.500000, 0.500000, 0.000000, -0.500000, -0.500000, 0.500000, 0.500000, -0.500000, 0.500000, 0.500000, 0.000000, -0.500000, 0.000000, 0.500000, 0.000000, 0.500000, 0.000000, -0.500000, 0.000000, 0.500000, 0.500000, 0.000000, 0.500000, 0.000000, 0.000000, 0.000000, -0.500000, 0.500000, 0.500000, -0.500000, 0.500000, 0.500000, -0.500000, 0.500000, -0.500000, 0.500000, -0.500000, 0.500000, 0.500000, 0.500000, -0.500000, -0.500000, 0.000000, 0.000000, 0.500000, 0.500000, 0.500000, 0.000000, -0.500000, 0.500000, 0.500000, 0.000000, 0.500000, 0.500000, 0.000000, 0.000000, 0.000000, 0.000000, 0.500000, -0.500000, 0.500000, 0.000000, 0.000000, -0.500000, 0.000000, 0.500000, 0.500000, 0.500000, 0.500000, 0.500000, 0.000000, 0.500000, 0.500000, 0.500000, -0.500000, 0.500000, 0.000000, 0.000000, 0.500000, 0.500000, 0.500000, -0.500000, 0.500000, 0.000000, -0.500000, -0.500000, 0.000000, -0.500000, 0.500000, 0.000000, 0.500000, 0.000000, 0.000000, 0.500000, 0.000000, 0.500000, 0.000000, 0.500000, 0.500000, -0.500000, 0.500000, 0.000000, -0.500000, 0.000000, 0.000000, 0.000000, -0.500000, 0.000000, 0.000000, 0.500000, 0.500000, 0.500000, -0.500000, 0.500000, -0.500000, 0.000000, -0.500000, 0.000000, -0.500000, 0.500000, 0.000000, 0.500000, 0.500000, 0.500000, -0.500000, 0.500000, -0.500000, 0.000000, 0.000000, -0.500000, -0.500000, -0.500000, 0.500000, -0.500000, 0.500000, 0.000000, -0.500000, -0.500000, 0.000000, 0.000000, 0.500000, 0.000000, -0.500000, 0.500000, 0.500000, 0.000000, -0.500000, 0.500000, -0.500000, 0.000000, 0.500000, 0.000000, -0.500000, 0.000000, 0.000000, 0.500000, 0.000000, 0.500000, 0.500000, 0.500000, 0.000000, 0.000000, 0.500000, 0.000000, 0.500000, 0.000000, 0.000000, 0.000000, 0.500000, -0.500000, 0.500000, 0.500000, 0.000000, 0.500000, 0.500000, -0.500000, -0.500000, 0.500000, 0.000000, 0.000000, 0.500000, 0.000000, 0.500000, 0.000000, -0.500000, 0.500000, 0.500000, 0.000000, 0.500000, 0.500000, -0.500000, -0.500000, 0.000000, -0.500000, 0.000000, 0.500000, 0.000000, 0.000000, 0.500000, -0.500000, 0.500000, -0.500000, 0.000000, 0.500000, 0.500000, 0.000000, -0.500000, 0.000000, -0.500000, -0.500000, 0.000000, 0.000000, 0.500000, -0.500000, 0.000000, 0.500000, 0.000000, -0.500000, 0.500000, 0.500000, -0.500000, -0.500000, 0.500000, -0.500000, -0.500000, 0.500000, 0.000000, 0.500000, 0.000000, 0.000000, 0.500000, -0.500000, 0.500000, 0.500000, 0.000000, -0.500000, -0.500000, 0.000000, 0.000000, 0.000000, 0.500000, -0.500000, 0.500000, 0.000000, -0.500000, 0.500000, -0.500000, 0.000000, 0.500000, 0.500000, -0.500000, -0.500000, 0.500000, 0.000000, -0.500000, 0.500000, 0.500000, 0.500000, 0.000000, 0.000000, 0.000000, -0.500000, 0.500000, 0.500000, 0.500000, 0.000000, -0.500000, 0.500000, -0.500000, 0.000000, 0.000000, 0.000000, 0.000000, -0.500000, -0.500000, 0.500000, -0.500000, 0.500000, 0.500000, 0.500000, 0.500000, 0.500000, 0.000000, 0.500000, -0.500000, 0.500000, -0.500000, -0.500000, 0.000000, 0.500000, 0.500000, 0.000000, 0.500000, 0.000000, 0.000000, 0.000000, -0.500000, -0.500000, -0.500000, 0.500000, 0.000000, -0.500000, 0.500000, 0.000000, -0.500000, 0.000000, 0.000000, 0.500000, 0.000000, 0.000000, -0.500000, 0.000000, -0.500000, 0.000000, 0.000000, 0.500000, 0.500000, 0.000000, 0.000000, 0.000000, 0.500000, 0.000000, 0.000000, 0.500000, -0.500000, -0.500000, 0.000000, -0.500000, 0.000000, -0.500000, 0.000000, 0.500000, -0.500000, 0.500000, -0.500000, -0.500000, -0.500000, 0.000000, 0.500000, 0.500000, -0.500000, -0.500000, 0.000000, 0.000000, 0.000000, 0.500000, -0.500000, -0.500000, 0.000000, 0.000000, 0.500000, 0.500000, 0.000000, 0.500000, 0.500000, 0.500000, 0.000000, 0.000000, -0.500000, 0.500000, 0.500000, -0.500000, 0.000000, -0.500000, 0.500000, 0.500000, -0.500000, -0.500000, 0.500000, 0.500000, 0.000000, -0.500000, -0.500000, 0.500000, 0.500000, 0.500000, -0.500000, 0.500000, 0.500000, -0.500000, 0.500000, 0.500000, -0.500000, 0.500000, 0.500000, -0.500000, -0.500000, 0.500000, 0.500000, -0.500000, 0.500000, -0.500000, -0.500000, 0.500000, 0.000000, 0.500000, 0.000000, 0.000000, 0.000000, 0.000000, -0.500000, -0.500000, 0.500000, 0.500000, 0.500000, 0.500000, 0.500000, 0.500000, 0.000000, -0.500000, 0.000000, -0.500000, -0.500000, 0.500000, 0.500000, -0.500000, -0.500000, 0.000000, 0.000000, -0.500000, 0.500000, -0.500000, 0.000000, 0.500000, -0.500000, 0.500000, 0.000000, -0.500000, 0.500000, 0.500000, -0.500000, -0.500000, 0.500000, -0.500000, 0.000000, 0.500000, 0.000000, 0.500000, 0.000000, -0.500000, 0.000000, 0.000000, 0.000000, 0.500000, 0.500000, 0.000000, 0.000000, 0.500000, -0.500000, 0.000000, 0.500000, -0.500000, 0.000000, 0.000000, -0.500000, 0.500000, 0.500000, 0.000000, 0.500000, 0.500000, 0.000000, 0.500000, 0.000000, 0.500000, 0.000000, 0.000000, 0.000000, 0.500000, 0.000000, 0.000000, 0.000000, -0.500000, 0.500000, 0.500000, 0.000000, 0.000000, 0.500000, 0.000000, 0.500000, -0.500000, 0.500000, 0.000000, 0.500000, 0.500000, -0.500000, 0.500000, 0.000000, 0.000000, 0.500000, 0.500000, 0.000000, 0.500000, 0.000000, 0.500000, 0.500000, 0.500000, 0.500000, 0.000000, -0.500000, 0.500000, 0.000000, 0.500000, 0.500000, 0.500000, -0.500000, 0.000000, 0.000000, -0.500000, 0.500000, 0.000000, 0.000000, 0.000000, 0.500000, -0.500000, 0.500000, 0.000000, 0.500000, 0.500000, 0.000000, -0.500000, 0.000000, 0.000000, 0.500000, 0.000000, 0.000000, 0.500000, 0.000000, -0.500000, 0.500000, 0.500000, 0.500000, 0.000000, -0.500000, 0.500000, -0.500000, -0.500000, 0.000000, 0.000000, 0.000000, 0.000000, 0.000000, 0.500000, -0.500000, 0.500000, 0.000000, -0.500000, -0.500000, -0.500000, 0.500000, 0.500000, -0.500000, -0.500000, 0.500000, 0.000000, 0.500000, 0.500000, -0.500000, -0.500000, 0.500000, 0.500000, 0.500000, -0.500000, 0.000000, 0.500000, 0.500000, 0.000000, 0.000000, 0.000000, 0.500000, 0.000000, 0.500000, 0.000000, 0.000000, 0.000000, 0.000000, 0.500000, 0.000000, 0.000000, 0.500000, 0.000000, 0.000000, 0.000000, 0.500000, 0.500000, 0.000000, 0.500000, -0.500000, 0.000000, 0.500000, -0.500000, 0.500000, 0.000000, -0.500000, 0.500000, 0.500000, -0.500000, -0.500000, 0.500000, -0.500000, -0.500000, 0.000000, -0.500000, 0.500000, 0.500000, 0.000000, 0.500000, 0.500000, -0.500000, 0.500000, 0.000000, -0.500000, -0.500000, -0.500000, 0.000000, 0.500000, 0.500000, 0.000000, 0.500000, -0.500000, -0.500000, 0.500000, 0.000000, -0.500000, 0.000000, 0.500000, -0.500000, -0.500000, 0.000000, -0.500000, 0.000000, 0.000000, 0.500000, -0.500000, -0.500000, -0.500000, 0.500000, 0.500000, -0.500000, 0.500000, 0.500000, -0.500000, -0.500000, 0.500000, 0.000000, -0.500000, 0.000000, 0.000000, 0.500000, 0.000000, 0.000000, 0.500000, 0.000000, 0.000000, 0.500000, 0.500000, -0.500000, -0.500000, 0.000000, -0.500000, -0.500000, 0.500000, 0.000000, 0.500000, 0.000000, -0.500000, 0.500000, -0.500000, 0.500000, 0.500000, 0.500000, -0.500000, 0.000000, 0.000000, 0.000000, -0.500000, 0.500000, 0.000000, 0.500000, -0.500000, 0.500000, 0.500000, 0.000000, 0.500000, 0.000000, 0.000000, 0.000000, 0.500000, -0.500000, 0.000000, 0.500000, 0.500000, 0.500000, 0.500000, 0.000000, 0.000000, 0.500000, 0.000000, 0.000000, 0.500000, 0.000000, -0.500000, 0.500000, 0.000000, 0.500000, -0.500000, 0.500000, 0.000000, 0.500000, 0.500000, 0.500000, 0.500000, -0.500000, 0.500000, 0.000000, -0.500000, 0.000000, 0.000000, -0.500000, 0.000000, 0.500000, 0.000000, 0.500000, 0.500000, -0.500000, 0.000000, 0.500000, 0.000000, 0.500000, 0.500000, -0.500000, 0.000000, 0.000000, 0.000000, -0.500000, -0.500000, 0.000000, 0.000000, 0.500000, 0.500000, 0.500000, 0.500000, 0.000000, -0.500000, -0.500000, 0.000000, -0.500000, 0.000000, -0.500000, 0.000000, 0.000000, 0.500000, 0.500000, 0.500000, 0.500000, -0.500000, 0.500000, -0.500000, -0.500000, 0.500000, 0.000000, 0.000000, -0.500000, 0.500000, 0.000000, 0.500000, 0.500000, 0.000000, -0.500000, 0.500000, 0.000000, 0.500000, -0.500000, -0.500000, 0.500000, 0.500000, -0.500000, 0.000000, 0.000000, 0.500000, 0.500000, 0.500000, -0.500000, 0.000000, 0.000000, 0.000000, 0.500000, 0.500000, -0.500000, 0.500000, 0.500000, -0.500000, -0.500000, 0.000000, -0.500000, 0.000000, 0.500000, 0.000000, 0.000000, 0.000000, -0.500000, 0.500000, -0.500000, -0.500000, 0.500000, 0.500000, -0.500000, -0.500000, 0.000000, -0.500000, 0.500000, 0.500000, -0.500000, 0.500000, 0.000000, 0.000000, 0.500000, -0.500000, 0.000000, 0.500000, 0.000000, -0.500000, 0.000000, 0.000000, -0.500000, 0.500000, 0.000000, -0.500000, 0.500000, 0.500000, -0.500000, 0.500000, -0.500000, 0.000000, 0.500000, 0.500000, -0.500000, -0.500000, 0.000000, -0.500000, -0.500000, 0.500000, 0.500000, 0.500000, -0.500000, -0.500000, 0.500000, 0.500000, -0.500000, 0.000000, 0.500000, -0.500000, -0.500000, 0.500000, -0.500000, -0.500000, 0.500000, 0.000000, 0.000000, 0.000000, -0.500000, 0.500000, 0.000000, 0.500000, 0.500000, 0.500000, -0.500000, -0.500000, -0.500000, -0.500000, 0.000000, 0.000000, 0.000000, 0.500000, 0.000000, -0.500000, 0.500000, 0.500000, 0.500000, 0.000000, 0.000000, -0.500000, -0.500000, 0.000000, 0.500000, -0.500000, 0.500000, -0.500000, 0.000000, -0.500000, 0.000000, 0.500000, -0.500000, 0.500000, 0.000000, 0.500000, 0.000000, -0.500000, 0.000000, 0.000000, 0.000000, 0.500000, 0.500000, 0.500000, 0.000000, -0.500000, 0.500000, 0.000000, 0.500000, 0.500000, 0.500000, 0.000000, 0.000000, -0.500000, 0.500000, 0.500000, 0.500000, -0.500000, 0.500000, 0.000000, 0.500000, 0.500000, 0.000000, 0.500000, 0.000000, -0.500000, -0.500000, 0.000000, -0.500000, -0.500000, 0.500000, 0.000000, 0.500000, 0.500000, 0.000000, 0.000000, 0.500000, 0.500000, 0.500000, 0.000000, 0.000000, 0.000000, 0.500000, -0.500000, -0.500000, 0.000000, 0.500000, 0.500000, 0.000000, -0.500000, 0.000000, 0.000000, -0.500000, 0.500000, 0.500000, -0.500000, -0.500000, 0.500000, -0.500000, 0.000000, 0.500000, 0.500000, 0.500000, 0.500000, 0.500000, -0.500000, 0.500000, 0.500000, 0.000000, 0.000000, -0.500000, 0.000000, -0.500000, 0.500000, -0.500000, 0.000000, 0.500000, -0.500000, -0.500000, -0.500000, 0.000000, 0.500000, 0.500000, 0.500000, 0.500000, 0.500000, -0.500000, 0.500000, 0.500000, 0.500000, 0.500000, 0.500000, 0.000000, -0.500000, 0.500000, 0.000000, 0.500000, -0.500000, -0.500000, 0.500000, 0.500000, 0.000000, -0.500000, 0.000000, 0.000000, 0.000000, 0.000000, -0.500000, 0.500000, 0.500000, -0.500000, 0.500000, 0.000000, -0.500000, 0.500000, 0.500000, -0.500000, -0.500000, 0.500000, 0.000000, -0.500000, 0.500000, 0.000000, -0.500000, 0.000000, 0.000000, 0.500000, 0.500000, 0.000000, 0.500000, 0.000000, -0.500000, -0.500000, 0.500000, -0.500000, 0.000000, 0.500000, 0.000000, 0.500000, 0.000000, -0.500000, 0.500000, 0.500000, -0.500000, 0.500000, 0.500000, -0.500000, -0.500000, 0.500000, 0.000000, -0.500000, 0.500000, -0.500000, 0.500000, -0.500000, 0.000000, 0.500000, -0.500000, -0.500000, 0.500000, 0.500000, 0.000000, -0.500000, -0.500000, -0.500000, 0.500000, 0.000000, -0.500000, 0.500000, 0.000000, -0.500000, 0.000000, 0.000000, 0.500000, 0.500000, 0.500000, 0.000000, 0.000000, 0.000000, 0.500000, -0.500000, 0.500000, 0.000000, 0.500000, -0.500000, 0.000000, 0.000000, -0.500000, 0.000000, 0.500000, 0.500000, -0.500000, -0.500000, 0.500000, -0.500000, -0.500000, 0.500000, 0.000000, 0.500000, 0.000000, 0.500000, 0.500000, 0.500000, 0.500000, 0.500000, 0.000000, 0.500000, 0.000000, 0.500000, 0.000000, 0.500000, 0.000000, 0.500000, 0.000000, -0.500000, -0.500000, 0.500000, 0.000000, 0.500000, 0.500000, 0.500000, 0.500000, 0.000000, 0.000000, -0.500000, 0.500000, 0.500000, 0.500000, 0.000000, -0.500000, 0.500000, 0.500000, 0.500000, 0.500000, 0.000000, -0.500000, 0.000000, 0.000000, -0.500000, -0.500000, -0.500000, 0.000000, 0.000000, -0.500000, 0.500000, -0.500000, 0.000000, -0.500000, 0.500000, 0.000000, 0.500000, -0.500000, 0.000000, -0.500000, 0.000000, 0.500000, 0.500000};
#endif
}

#endif
